-0.89574840900884434
-0.290061014857731
-0.45589562350194834
-0.067304456700737453
-0.45279376863582033
0.75751173783320591
-1.5502070778762191
2.0212646033151089
-1.3637132055233263
1.0087750420886163
1.1574296594202271
-0.16656809858996213
0.17993541047532727
-0.44885170244739009
0.78508403485861755
0.32049179687038276
0.23095884188474822
0.85975245152059454
-0.084905081308479902
1.2014928133682814
-0.023327475562438874
0.69358460448686599
0.076698938853898044
0.51502676871245134
0.1811427852653745
0.58881674094322256
-0.41960389996018682
1.1983078887906298
-0.33766671272014182
0.36771543806078022
-1.1358048745178453
1.3806297958909786
0.84611033702391725
-0.29986268754679313
-0.88634452189110124
-0.37772478762668049
0.38201004601962479
0.42905146371110392
0.67512767449421385
-0.55145161956321298
0.041637547731752197
-0.16763332509029308
-0.61590559146667834
0.83675514703571197
0.36015916296221179
-0.33964666912064045
-0.39886361194482572
-0.02813109578014809
-0.69522127573904358
-0.89398166210617214
-0.070230905468542756
-0.39428809044235696
-0.29155440139531302
0.44733790162570908
1.7541826225027575
-0.81575547898361822
1.8713291249785362
0.13456012609851661
-0.67643468749630931
0.64947002502813511
0.39216233181048893
-0.54153115164540633
0.12658078282091673
-1.4336001313004663
-2.5611088571296787
0.30415052798244141
-1.0832501604050282
0.6347997670968949
0.60291496559466462
1.01821648915762
0.6460562012290767
0.77143489301795343
-0.27783098585584642
2.2407515230016806
0.26779432514914703
0.399586045754727
1.3194740749827258
-1.0433817736787321
3.0315312867663402
-1.2161032227546922
1.426968059538974
1.3354913852336308
-0.66763802067763545
-1.9715164726477172
-0.91385614044274321
0.16003595706841761
0.46475966922179113
0.31580282660357495
-0.4707931478263408
-0.058318962212903044
1.7899310131794224
0.42951896553544211
-0.2109090615761646
0.018798701097823382
0.95701152218343
-0.31752495645620343
0.83674116635697071
-0.80308842725974172
-0.710928063812717
-0.80069162536964411
-1.8162807134657377
1.4290483783766348
1.239293967603317
-0.68490459947059257
0.5272755650771096
1.3546954483540765
-0.85518435395252146
-0.97828386523176958
-0.41436646415616846
0.97628181992731333
0.28622747264252563
-0.16005127133677161
1.1014411629108944
-1.0965291872582279
-1.0486152603512564
0.018838724685836895
0.37281870046465887
0.31378154329327662
-0.94409020143873157
-0.40912036515499905
-0.25443654444618136
0.18957986313521025
0.15220577229698029
0.21972716416052004
-0.74604331516691502
0.56204145097674407
1.0497122595085524
-0.19879487887667474
-0.3443492088245943
0.50484765014151711
-0.82697995560645887
1.7385509472268106
-0.78758676239755199
0.022350341473068781
-0.78340975621279307
-0.44915061661117667
-0.15595775101234499
1.0223226587905323
-0.41010965711641417
-0.032149293911996051
-0.16094871096928431
1.2000196672838794
-2.0105631494037741
0.56477182112653013
0.077795247800335671
-1.4579153840032824
0.028887725411704843
-0.073353301582957539
-0.027221874046442988
0.6165377871569665
0.014976636058914276
0.69066821446416871
1.7190575592222563
0.69547881210061302
-0.12086645082354923
-0.70777206171934381
1.8418172358348661
-0.38175007543759981
1.0490051546064223
0.85534753681187914
0.67597531334262373
0.38989602750028945
-0.56865949620607181
0.76934464339304376
-0.11494592476180598
0.019708784150156845
-0.03241812177788609
-0.45264740406805665
-1.1910569451024395
-0.41852350697444773
1.2377088954428201
2.0042501325546596
-0.039977841443504442
0.63314160598548885
0.43326610029821311
-1.6542528410312942
0.18818423189797359
-0.91184828127591389
-1.591611796457814
-0.70118427869048305
1.6813131488631883
0.091218757732209096
-1.0743835491602329
0.71616931385821858
0.49169515686973309
-0.30946618498960271
0.55933786322913703
-0.28433798688439599
-1.2745815447039341
-1.2578854005074318
-0.13660000563713917
-0.95835819169042757
-0.52417428043858172
0.053022837804247207
0.14480248122609315
-1.5655094568166235
0.31320069011819107
-0.093093264321541302
0.64421237790316266
0.85533650613521661
-1.3167763426389332
0.63482154060243812
0.15759195044512195
1.3010794011199986
0.18840050200714623
-0.73876764482371349
-2.0463498375105824
-1.0189710972813615
-1.2079340325487591
0.15468560098822748
-1.3467137891670564
-1.3989315325969058
0.14187811933357874
1.9060325310785142
-0.86765970461891062
-1.5963432927977759
-2.3201872678547963
-0.88567396834725665
0.54115242960113352
-0.1731022295960318
0.021727141176539965
0.6780868449505183
1.4642251405457336
-1.9276420761328883
-0.43089202325617504
-0.73049957067807636
-0.67985539719053623
-2.5737196176698247
-1.3059648203838867
1.2011562035505199
0.68702344762683665
0.091124143174533379
0.7134159981893915
-1.3725325597540425
-0.15595069480847656
-0.37259415174395299
0.74935931779751885
1.4814143679586234
-0.87394613439878188
1.0854286005577349
0.056386748235271296
1.279154847037608
0.98537544893748019
-0.93272141255406193
1.9150605040458437
-1.439162980636862
0.21487519358917659
1.5818892798570059
-1.504958255538436
-0.33421168148817487
-0.38716317410688444
0.15992957234644609
0.58325030668958122
-0.2846359801309416
0.43855560290806056
2.1750468975365949
1.5544787567592118
1.7305722099746323
0.54711886824533495
-0.68993161260091962
0.37106723748662601
0.67908343906436863
1.0338489543587572
0.7578788162696235
-0.60122905148063577
-1.2914374195108123
-1.3609700295813587
-0.54779241723378191
0.50671582421520478
1.5476257600943186
-0.094605612599952635
0.92339103407309597
-1.2250955304091857
1.3386060250124387
0.076962741636394605
1.2429714782268062
0.6370856142739062
-0.64590335602377957
-0.97365998944964638
-2.3080093141660987
-0.11480598986748866
-0.14919323764518866
-0.39517990916296769
0.91461162941863239
-0.012175310837145938
0.68899261251594024
0.7609355460473497
0.27099185577575879
-0.88573094321176349
0.57399511216837462
-0.42584677358196027
-1.4499839941087782
0.97398029898829697
2.4461150817962842
-0.79886839445607682
0.016134674282224103
1.2323492573747337
-2.1315675332973916
-1.9239946210367995
-0.24660985449955913
1.0476752581006885
3.3876521961392587
3.2123916696711565
1.0165714713910465
0.64107856683798337
-0.57226014301606021
-1.7824126372495226
-0.097692242460774445
0.17827115714268643
0.097844395900995501
1.6570812797615337
0.11137829051108032
1.6017756172471334
0.77008613428594286
0.80764263356097232
-1.4051295119660685
0.79412879578435058
0.65696187972410292
-0.69896296195457519
0.38271743969752958
0.45389961218176783
0.55144079739849783
0.72276474366758447
1.1698372581868681
0.080641655398943135
0.54286445675260464
0.010721589766481727
0.98597685111799593
-0.59723198232262964
1.0530361113247333
-1.2153763614766386
0.88439776769706935
-0.13848523676822394
0.30855667483956284
-0.34248900944776373
-0.12682340081308022
0.31647592048731715
0.86802290691943029
0.88554060635541099
0.35197223859207732
1.2543797111528836
0.37408719567474719
1.220100028511536
1.8975340440113313
-1.1789495592342933
-1.1279858291836551
1.2492440760808732
-0.15155198044367757
0.47717248062393441
1.5649915181868477
-0.63864001366281087
-0.97264393312841546
0.090446153235779717
0.18841478264393452
0.52285624826058552
0.50468440705690776
-1.4254207169912958
-0.20340609316955408
-0.24064949110669254
-2.3428967064636419
-1.3150764293360806
0.77196271821307205
-1.1006189753557436
0.24273740923953721
-1.7590268595153082
0.29468733278494069
0.88153318266388081
1.1418250149782128
-0.43527628407518898
-0.98019523349805071
0.78425379345434876
-0.04480207721394186
0.057496093900952734
1.2289169480242308
1.8262792759068556
-0.87513123475166799
-0.48933198714626813
0.084889184352595959
0.67121208867109594
1.3421961201560708
0.56770328522356617
-0.42854918346600823
1.0023726391774794
0.5815115313619984
-0.16202803154873099
0.59373982598858699
0.20171941145759184
1.8235151880247982
-0.25082534549128999
1.2669902925842125
1.1863382152413906
-0.53306390069472553
0.68030103518314844
0.89844678621606666
1.6372916857511133
-1.2965979400011063
-0.80619496638067356
0.16088482117828234
-2.3662206717418695
-1.5265037615751835
-1.8083222020924039
0.69978960669169521
-0.63025456773795074
3.0020499417613564
0.81152393534830936
0.81473279577303959
-0.15989658733734463
-0.31270454101774509
0.81478207824469917
1.1799679430374985
1.4592821396804538
1.3752595106656753
1.0925920619168266
-0.024784250530783238
-0.026131419139397802
-0.87914894181573677
-0.13443902634159971
0.39256181148235197
-1.3912484380074708
-0.40838823823912568
-0.40759894083373666
0.09374954241761646
-0.32693087147690875
-0.32310021114863136
-1.3088114120546519
-1.1587565760857086
-1.2944976364543339
0.3083680864096171
0.4323756118109725
-1.873024877129877
-1.1235014993125818
-0.36929298765885654
0.54320769579363359
0.20910456266366881
0.86053681008093663
-1.3526953389159506
-0.65608424510864927
-1.3510468647328746
0.089603499984597171
-0.81471116321813708
0.76226927982945403
-1.6894021866258349
0.080682696121877368
-2.1623103522869016
-0.90915447707977959
-0.078678618726943469
0.39814635593366315
0.33213370350658328
-1.7578705250336326
0.47255797135030636
0.79948446715282895
-0.79839131100535821
1.0160618872942004
-0.56234738558007114
-0.84779609352801477
0.18699520556617505
0.65682078765323015
0.46235349057179925
0.29775942892651619
0.59155935048545216
-0.31049691846349692
0.68632414200650793
0.62225782839901711
-1.5601503201508371
-0.57907525707243146
0.94407339717425676
-0.36157289205549592
-0.61596831985840861
-0.25691340904836507
0.92829850721356821
-1.2564354817832046
0.78085146287383411
0.79997074151263126
0.50990389587163654
-0.6511134890579644
-1.1290446818004172
0.91046925549246749
0.41019165408766833
0.12216280988396262
0.18091193809133457
0.40786658308155704
0.3658120064231854
1.1970927493799699
0.66268558748939632
0.087472928263569089
0.97913018958739373
1.8966597276974491
0.25218066302065789
0.98862311158331395
-1.091094259610629
1.1491425294641127
-0.56756745664103736
-0.33694685251958212
0.68412750374233344
-0.40717208564798557
-2.1796028004821251
-1.9852052973638101
-1.3851693474155831
0.54621362679778673
-0.49809964195674933
-0.33224611064733883
-1.0754623521173665
1.8782401376619196
-0.2418090781336367
-0.80657462859980089
0.25847438134159867
-1.5717923260463895
-0.52220133813255831
0.098982404640110225
2.0897118066369962
0.29872794576601275
0.31343034825753513
0.77858486885360612
1.0396289891510688
-0.53543393936004702
0.35690977860768469
-1.6947875095930125
0.47459584993935372
-1.1322063783483478
-0.16203140500250968
0.2061139777125956
-0.8455834758088967
1.2766374127508613
-0.51551324929927267
-0.63192905080372974
0.67817899082558142
1.3186119284286999
0.17744733590537456
-1.0526282009206525
1.041846676435261
-0.75425474987839514
-2.0253581473670876
-0.99381322160919316
1.5417407022269032
2.0596332088386662
0.21559438274064024
0.092452690351873493
-1.7801493587969059
-1.7965572863941728
0.74997818107396019
-0.24970713668545294
-0.78048668233518881
-0.52223224534819457
-0.47277442989045704
-0.12407896973391121
-1.0928585189119682
0.20903777690767381
0.27831853940996037
0.82525074524673858
-0.50230257939153744
1.5888583796260491
-0.33144632202880869
0.53682025317843185
-0.45739986521672082
1.7073382038893994
-0.47673615897124466
0.9281288646424829
-0.35640706430773722
0.94490141705337738
1.091160041569543
-0.15975553927844513
-0.33399478068939525
-0.56206112261720609
-0.19080166182494826
-0.43256297660105097
-1.8802751060571159
-0.27137719769582902
0.29138238198535188
-0.75275708170077327
-0.64402337994795911
-0.60683981767506612
-0.039941654446075926
