-0.83874092631872077
-0.28694642261235059
-0.55277385113446209
-0.083398150903739213
-0.42194924509332155
0.74840030008683633
-1.5743492430346042
1.9673785069995535
-1.3521626472710611
1.1096622378934231
1.2187418585157681
-0.16321831908226209
0.0757417748929263
-0.46616065375145749
0.8182576724088485
0.31069234219303177
0.20499366973086178
0.80179734329083074
-0.072482324211925367
1.3099981434195447
0.038552411993741778
0.69696539946897185
-0.028459423346484228
0.49755755373045407
0.21462357707891577
0.57892655340553423
-0.44580948306393109
1.1398161756111105
-0.32512893339198795
0.4772254170458245
-1.0741070061759819
1.3840006461600056
0.74126129734407975
-0.31728051693714959
-0.85296221383189752
-0.38758588336823802
0.35588154647750148
0.37073180370553704
0.68762857380413311
-0.44226376366778974
0.10315029046884812
-0.16427258888515725
-0.72044002993641132
0.81938958035472031
0.3934413068636381
-0.34947817647619772
-0.42491371254850052
-0.086275767023989092
-0.68275788568994034
-0.78512142598894241
-0.0087003976139143416
-0.39092638370358057
-0.39611903033711604
0.42996731949320122
1.7874743785854046
-0.82558982568293471
1.8452715008195362
0.0763986623611142
-0.66396769773177566
0.75836170073689912
0.45444903340747678
-0.53812813047049646
0.020731083538135478
-1.4511841928638778
-2.5274079544650716
0.29419531976865759
-1.1096280253322932
0.57592351529193775
0.61553517147685122
1.1284464139378736
0.70811538998079704
0.77482548396610507
-0.38329405151089779
2.223231690076263
0.3013721294708806
0.38966720048049003
1.2931925595051772
-1.1020429702536447
3.0441053949455177
-1.1062759314330961
1.4887961825836191
1.3388693520671262
-0.77270841423997982
-1.9889710737842321
-0.88040335648642443
0.15015404291528836
0.43857600791032803
0.25736004397224582
-0.4582658567616601
0.05109940787499799
1.8517942066133637
0.43289884853501365
-0.31603905363285767
0.0013341993414364775
0.99048328093569649
-0.32741247584043842
0.81054265314239826
-0.86156435989605229
-0.69839366724534191
-0.6912111906615066
-1.7520391846395862
1.432558201041557
1.1301222475738661
-0.70304052529218919
0.56203414872409008
1.3444278027551091
-0.88239007009774828
-1.0390079076305072
-0.4013501815010031
1.0899712378499031
0.34982171759307501
-0.15657681262728798
0.99336943269850408
-1.1144823794751237
-1.014206896939291
0.0086745334338534565
0.34588710299156217
0.25366934266648622
-0.93120506806534886
-0.29657645670957727
-0.12320658830747289
0.19674957563590142
-0.070805574810101912
0.18267985664829825
-0.67503990806803327
0.54106714537655232
0.99413760918953287
-0.32283932232381113
-0.31776008322011112
0.73708767159609323
-0.82697995560645887
1.7385509472268106
-0.78758676239755199
0.022350341473068781
-0.78340975621279307
-0.44915061661117667
-0.15595775101234499
1.0223226587905323
-0.41010965711641417
-0.032149293911996051
-0.16094871096928431
1.2000196672838794
-2.0105631494037741
0.56477182112653013
0.077795247800335671
-1.4579153840032824
0.028887725411704843
-0.073353301582957539
-0.027221874046442988
0.6165377871569665
0.014976636058914276
0.69066821446416871
1.7190575592222563
0.69547881210061302
-0.12086645082354923
-0.70777206171934381
1.8418172358348661
-0.38175007543759981
1.0490051546064223
0.85534753681187914
0.67597531334262373
0.38989602750028945
-0.56865949620607181
0.76934464339304376
-0.11494592476180598
0.019708784150156845
-0.03241812177788609
-0.45264740406805665
-1.1910569451024395
-0.41852350697444773
1.2377088954428201
2.0042501325546596
-0.039977841443504442
0.63314160598548885
0.43326610029821311
-1.6542528410312942
0.18818423189797359
-0.91184828127591389
-1.591611796457814
-0.70118427869048305
1.6813131488631883
0.091218757732209096
-1.0743835491602329
0.71616931385821858
0.49169515686973309
-0.30946618498960271
0.55933786322913703
-0.28433798688439599
-1.2745815447039341
-1.2578854005074318
-0.13660000563713917
-0.95835819169042757
-0.52417428043858172
0.053022837804247207
0.14480248122609315
-1.5655094568166235
0.31320069011819107
-0.093093264321541302
0.64421237790316266
0.85533650613521661
-1.3167763426389332
0.63482154060243812
0.15759195044512195
1.3010794011199986
0.18840050200714623
-0.73876764482371349
-2.0463498375105824
-1.0189710972813615
-1.2079340325487591
0.15468560098822748
-1.3467137891670564
-1.3989315325969058
0.14187811933357874
1.9060325310785142
-0.86765970461891062
-1.5963432927977759
-2.3201872678547963
-0.88567396834725665
0.54115242960113352
-0.1731022295960318
0.021727141176539965
0.6780868449505183
1.4642251405457336
-1.9276420761328883
-0.43089202325617504
-0.73049957067807636
-0.67985539719053623
-2.5737196176698247
-1.3059648203838867
1.2011562035505199
0.68702344762683665
0.091124143174533379
0.7134159981893915
-1.3725325597540425
-0.15595069480847656
-0.37259415174395299
0.74935931779751885
1.4814143679586234
-0.87394613439878188
1.0854286005577349
0.056386748235271296
1.279154847037608
0.98537544893748019
-0.93272141255406193
1.9150605040458437
-1.439162980636862
0.21487519358917659
1.5818892798570059
-1.504958255538436
-0.33421168148817487
-0.38716317410688444
0.15992957234644609
0.58325030668958122
-0.2846359801309416
0.43855560290806056
2.1750468975365949
1.5544787567592118
1.7305722099746323
0.54711886824533495
-0.68993161260091962
0.37106723748662601
0.67908343906436863
1.0338489543587572
0.7578788162696235
-0.60122905148063577
-1.2914374195108123
-1.3609700295813587
-0.54779241723378191
0.50671582421520478
1.5476257600943186
-0.094605612599952635
0.92339103407309597
-1.2250955304091857
1.3386060250124387
0.076962741636394605
1.2429714782268062
0.6370856142739062
-0.64590335602377957
-0.97365998944964638
-2.3080093141660987
-0.11480598986748866
-0.14919323764518866
-0.39517990916296769
0.91461162941863239
-0.012175310837145938
0.68899261251594024
0.7609355460473497
0.27099185577575879
-0.88573094321176349
0.57399511216837462
-0.42584677358196027
-1.4499839941087782
0.97398029898829697
2.4461150817962842
-0.79886839445607682
0.016134674282224103
1.2323492573747337
-2.1315675332973916
-1.9239946210367995
-0.24660985449955913
1.0476752581006885
3.3876521961392587
3.2123916696711565
1.0165714713910465
0.64107856683798337
-0.57226014301606021
-1.7824126372495226
-0.097692242460774445
0.17827115714268643
0.097844395900995501
1.6570812797615337
0.11137829051108032
1.6017756172471334
0.77008613428594286
0.80764263356097232
-1.4051295119660685
0.79412879578435058
0.65696187972410292
-0.69896296195457519
0.38271743969752958
0.45389961218176783
0.55144079739849783
0.72276474366758447
1.1698372581868681
0.080641655398943135
0.54286445675260464
0.010721589766481727
0.98597685111799593
-0.59723198232262964
1.0530361113247333
-1.2153763614766386
0.88439776769706935
-0.13848523676822394
0.30855667483956284
-0.34248900944776373
-0.12682340081308022
0.31647592048731715
0.86802290691943029
0.88554060635541099
0.35197223859207732
1.2543797111528836
0.37408719567474719
1.220100028511536
1.8975340440113313
-1.1789495592342933
-1.1279858291836551
1.2492440760808732
-0.15155198044367757
0.47717248062393441
1.5649915181868477
-0.63864001366281087
-0.97264393312841546
0.090446153235779717
0.18841478264393452
0.52285624826058552
0.50468440705690776
-1.4254207169912958
-0.20340609316955408
-0.24064949110669254
-2.3428967064636419
-1.1838464731973721
0.77913243071376326
-1.3236303224628259
0.20569010172731542
-1.6880234524164264
0.27371302718474888
0.82595853234486127
1.0177805715310764
-0.4086871584707058
-0.74795521204347459
0.78425379345434876
-0.04480207721394186
0.057496093900952734
1.2289169480242308
1.8262792759068556
-0.87513123475166799
-0.48933198714626813
0.084889184352595959
0.67121208867109594
1.3421961201560708
0.56770328522356617
-0.42854918346600823
1.0023726391774794
0.5815115313619984
-0.16202803154873099
0.59373982598858699
0.20171941145759184
1.8235151880247982
-0.25082534549128999
1.2669902925842125
1.1863382152413906
-0.53306390069472553
0.68030103518314844
0.89844678621606666
1.6372916857511133
-1.2965979400011063
-0.80619496638067356
0.16088482117828234
-2.3662206717418695
-1.5265037615751835
-1.8083222020924039
0.69978960669169521
-0.63025456773795074
3.0020499417613564
0.81152393534830936
0.81473279577303959
-0.15989658733734463
-0.31270454101774509
0.81478207824469917
1.1799679430374985
1.4592821396804538
1.3752595106656753
1.0925920619168266
-0.024784250530783238
-0.026131419139397802
-0.87914894181573677
-0.13443902634159971
0.39256181148235197
-1.3912484380074708
-0.40838823823912568
-0.40759894083373666
0.09374954241761646
-0.32693087147690875
-0.32310021114863136
-1.3088114120546519
-1.1587565760857086
-1.2944976364543339
0.3083680864096171
0.4323756118109725
-1.873024877129877
-0.99227154317387334
-0.36212327515816539
0.32019634868655139
0.17205725515144701
0.93154021717981839
-1.3736696445161425
-0.7116588954276688
-1.475091308180011
0.11619262558908038
-0.58247114176356096
0.68324813974388499
-1.3806184719425132
0.052107253607007388
-1.8537928305592637
-1.0527321052213943
-0.38730286585974671
0.29849276335491548
0.3516855752434801
-1.6021877659330788
0.59272736650449143
0.84140378288845519
-0.80688864138821637
1.0983470363021288
-0.88388557035532211
-0.81804032762550261
-0.1342657914795799
0.80632896373173812
0.78372562113899069
0.40152926445554049
0.57119987861227273
-0.47261023408770531
0.56119108806765661
0.57860701372781442
-1.5513020031566005
-0.5671489744443361
0.89747014850843387
-0.35726013721319638
-0.66253139355613777
-0.23524392452265167
0.9748776883355641
-1.2413952418529579
0.77790059241123222
0.77647428748775893
0.49176730396672741
-0.65744017083458994
-1.1277622203778088
0.88848838117043138
0.4960843155074306
0.11421413678140768
0.26673055392225342
0.36792838681780998
0.27996370329359066
1.169372659622621
0.66812422371844737
0.130778341948596
1.0125570468675262
1.9083201923565558
0.24981700753535147
0.90783432745720172
-0.77540328341819331
1.1199278755807789
-0.25214862771033547
-0.48373620527755479
0.368599562041171
-0.50905485487744018
-2.1596135679424178
-1.8260400308829232
-1.2623118524290582
0.5890706463926707
-0.50678705129213797
-0.29566503134402355
-1.2184069049608903
1.8914685032285123
-0.38463040320077924
-0.74010855894372063
0.40134511239543069
-1.5256599118255523
-0.53125244230434976
0.026912533819923118
2.0340820578109984
0.27932233087203318
0.31736399837021645
0.85779733734183949
0.73009763817225459
-0.50678930909874531
0.047645264644578966
-1.5508622469042259
0.7839673474872918
-1.0323115015332713
-0.1816306163295944
0.050054274780025831
-0.96604382880221773
1.2346166006851351
-0.50699534492004716
-0.5708531673877778
0.43951832194734647
1.3406980485989275
-0.061007591229798847
-0.94165624493386146
1.2803840920349674
-0.6772319279806972
-2.0404698989471552
-1.1141413013759223
1.448861101112608
2.0272335340490777
0.22216201716414119
0.020756856469271973
-1.4999900763328518
-1.8224837685712973
1.0298959470319313
-0.37997503417911394
-1.0605012799740627
-0.61264789120069629
-0.45503502817634789
0.017171905955572928
-0.98382889742613022
0.24707114739115232
0.2706089165556802
0.77461555166838747
-0.30444004366004396
1.5705477976472693
-0.13375435725293885
0.44481853077100186
-0.65516021734862284
1.6434821402196154
-0.46420770381401932
1.0278873170214478
-0.27940487755285648
0.97176249073508236
1.0857151192567378
-0.076665459891057289
-0.65867831884940597
-0.53201427964637993
-0.51520530051837909
-0.28159228056172297
-1.5557592465965349
-0.16659226413154726
0.27082374953923732
-0.91645622343078481
-0.77038051135162977
-0.65091763366109445
-0.03100678138137445
