-0.83022409688043308
-0.28844136286536903
-0.54919074459726502
-0.093956511645373775
-0.42609922230440245
0.77121420542976948
-1.5477802930474684
1.990290299275284
-1.3513480258264079
1.1327182994787008
1.2266033868536377
-0.16483117625124333
0.079598891203931557
-0.47723850452653904
0.81364926227896084
0.32981941248860469
0.23264137980694455
0.82763822031635093
-0.072365120077771919
1.3322623613853495
0.048093335474181424
0.6953438353001492
-0.024570856176812518
0.48603341264331273
0.21015199095736256
0.60492425804901662
-0.41675813976633863
1.1644127439881844
-0.32407157744226278
0.50282979810519235
-1.0650033370729752
1.3823822660514593
0.74513951191413519
-0.32868321674235418
-0.85746636220068106
-0.36336944217989625
0.38455513966019716
0.39563387452013843
0.68844364687524429
-0.41753290767850382
0.11181566440166048
-0.16588770585277851
-0.71657236165223692
0.80810902018946007
0.38890475768428651
-0.32704664558658703
-0.39661972938761486
-0.061068908920414541
-0.68218547739360025
-0.76126647692452842
9.5555981874839019e-005
-0.39254147070944356
-0.3922505848802148
0.41865610058211478
1.7829508283341533
-0.80261821453215321
1.8736651446798465
0.10149453161348448
-0.66332026280089029
0.78247338018331547
0.46264875297143804
-0.53976579612568898
0.024648939628320574
-1.4624837369686046
-2.532065787659624
0.31451480952590538
-1.081388557049108
0.60197820057468054
0.61577887748053606
1.1514804690402951
0.71648297650154003
0.77319456683222609
-0.37939103079131842
2.2119310979651208
0.29675341053128956
0.41073663003659183
1.3214701852614608
-1.0762661227407542
3.0444638362615168
-1.0829401271605648
1.4973340653028269
1.3372452879576686
-0.76882046024796014
-2.0002726891532863
-0.88498237211284703
0.17198432221259902
0.46689224952171221
0.282854892373955
-0.45779100115163313
0.074741298479294171
1.8602957889132525
0.43127370379325247
-0.31214878485920544
-0.0099650244423517709
0.98589707172925534
-0.30574122681620819
0.83884556663958076
-0.8360170578476066
-0.69794259051507912
-0.66763614825318618
-1.7436461981305276
1.4308688901246391
1.1341632328368603
-0.71468098931610347
0.55722297375011531
1.3651180520226873
-0.85331009672852998
-1.0120763448671757
-0.40113627954388753
1.1136032068761923
0.35824798483524523
-0.15824864589708584
0.99736938933951269
-1.1260307691807439
-1.0189564291297675
0.029647291268386652
0.37475825438870397
0.28022072714531948
-0.9309244394483549
-0.27295271343115785
-0.19847026419214714
0.19294060755944076
-0.062305677678024668
0.17867129744342103
-0.69519205453984345
0.19833456964472967
0.98753090890350659
-0.18249296166971143
-0.37133625499709921
0.60509988404619552
-0.73606486493785561
1.7389032768975279
-0.78782794507533194
0.0028997538689858014
-0.77325252964816094
-0.070374669827656333
-0.091014525271757615
0.93837000014859018
-0.35696945209419029
0.14519959155497431
-0.16094871096928431
1.2000196672838794
-2.0105631494037741
0.56477182112653013
0.077795247800335671
-1.4579153840032824
0.028887725411704843
-0.073353301582957539
-0.027221874046442988
0.6165377871569665
0.014976636058914276
0.69066821446416871
1.7190575592222563
0.69547881210061302
-0.12086645082354923
-0.70777206171934381
1.8418172358348661
-0.38175007543759981
1.0490051546064223
0.85534753681187914
0.67597531334262373
0.38989602750028945
-0.56865949620607181
0.76934464339304376
-0.11494592476180598
0.019708784150156845
-0.03241812177788609
-0.45264740406805665
-1.1910569451024395
-0.41852350697444773
1.2377088954428201
2.0042501325546596
-0.039977841443504442
0.63314160598548885
0.43326610029821311
-1.6542528410312942
0.18818423189797359
-0.91184828127591389
-1.591611796457814
-0.70118427869048305
1.6813131488631883
0.091218757732209096
-1.0743835491602329
0.71616931385821858
0.49169515686973309
-0.30946618498960271
0.55933786322913703
-0.28433798688439599
-1.2745815447039341
-1.2578854005074318
-0.13660000563713917
-0.95835819169042757
-0.52417428043858172
0.053022837804247207
0.14480248122609315
-1.5655094568166235
0.31320069011819107
-0.093093264321541302
0.64421237790316266
0.85533650613521661
-1.3167763426389332
0.63482154060243812
0.15759195044512195
1.3010794011199986
0.18840050200714623
-0.73876764482371349
-2.0463498375105824
-1.0189710972813615
-1.2079340325487591
0.15468560098822748
-1.3467137891670564
-1.3989315325969058
0.14187811933357874
1.9060325310785142
-0.86765970461891062
-1.5963432927977759
-2.3201872678547963
-0.88567396834725665
0.54115242960113352
-0.1731022295960318
0.021727141176539965
0.6780868449505183
1.4642251405457336
-1.9276420761328883
-0.43089202325617504
-0.73049957067807636
-0.67985539719053623
-2.5737196176698247
-1.3059648203838867
1.2011562035505199
0.68702344762683665
0.091124143174533379
0.7134159981893915
-1.3725325597540425
-0.15595069480847656
-0.37259415174395299
0.74935931779751885
1.4814143679586234
-0.87394613439878188
1.0854286005577349
0.056386748235271296
1.279154847037608
0.98537544893748019
-0.93272141255406193
1.9150605040458437
-1.439162980636862
0.21487519358917659
1.5818892798570059
-1.504958255538436
-0.33421168148817487
-0.38716317410688444
0.15992957234644609
0.58325030668958122
-0.2846359801309416
0.43855560290806056
2.1750468975365949
1.5544787567592118
1.7305722099746323
0.54711886824533495
-0.68993161260091962
0.37106723748662601
0.67908343906436863
1.0338489543587572
0.7578788162696235
-0.60122905148063577
-1.2914374195108123
-1.3609700295813587
-0.54779241723378191
0.50671582421520478
1.5476257600943186
-0.094605612599952635
0.92339103407309597
-1.2250955304091857
1.3386060250124387
0.076962741636394605
1.2429714782268062
0.6370856142739062
-0.64590335602377957
-0.97365998944964638
-2.3080093141660987
-0.11480598986748866
-0.14919323764518866
-0.39517990916296769
0.91461162941863239
-0.012175310837145938
0.68899261251594024
0.7609355460473497
0.27099185577575879
-0.88573094321176349
0.57399511216837462
-0.42584677358196027
-1.4499839941087782
0.97398029898829697
2.4461150817962842
-0.79886839445607682
0.016134674282224103
1.2323492573747337
-2.1315675332973916
-1.9239946210367995
-0.24660985449955913
1.0476752581006885
3.3876521961392587
3.2123916696711565
1.0165714713910465
0.64107856683798337
-0.57226014301606021
-1.7824126372495226
-0.097692242460774445
0.17827115714268643
0.097844395900995501
1.6570812797615337
0.11137829051108032
1.6017756172471334
0.77008613428594286
0.80764263356097232
-1.4051295119660685
0.79412879578435058
0.65696187972410292
-0.69896296195457519
0.38271743969752958
0.45389961218176783
0.55144079739849783
0.72276474366758447
1.1698372581868681
0.080641655398943135
0.54286445675260464
0.010721589766481727
0.98597685111799593
-0.59723198232262964
1.0530361113247333
-1.2153763614766386
0.88439776769706935
-0.13848523676822394
0.30855667483956284
-0.34248900944776373
-0.12682340081308022
0.31647592048731715
0.86802290691943029
0.88554060635541099
0.35197223859207732
1.2543797111528836
0.37408719567474719
1.220100028511536
1.8975340440113313
-1.1789495592342933
-1.1279858291836551
1.2492440760808732
-0.15155198044367757
0.47717248062393441
1.5649915181868477
-0.63864001366281087
-0.97264393312841546
0.090446153235779717
0.18841478264393452
0.52285624826058552
0.50468440705690776
-1.4254207169912958
-0.20340609316955408
-0.24064949110669254
-2.3428967064636419
-1.1681950584134433
0.77567579230801975
-1.3153716080085285
0.18223095491835534
-1.6980183723236044
0.30975639823644663
0.88429505779942252
1.074174273543234
-0.40912312522546995
-0.70259411412640205
0.78425379345434876
-0.04480207721394186
0.057496093900952734
1.2289169480242308
1.8262792759068556
-0.87513123475166799
-0.48933198714626813
0.084889184352595959
0.67121208867109594
1.3421961201560708
0.56770328522356617
-0.42854918346600823
1.0023726391774794
0.5815115313619984
-0.16202803154873099
0.59373982598858699
0.20171941145759184
1.8235151880247982
-0.25082534549128999
1.2669902925842125
1.1863382152413906
-0.53306390069472553
0.68030103518314844
0.89844678621606666
1.6372916857511133
-1.2965979400011063
-0.80619496638067356
0.16088482117828234
-2.3662206717418695
-1.5265037615751835
-1.8083222020924039
0.69978960669169521
-0.63025456773795074
3.0020499417613564
0.81152393534830936
0.81473279577303959
-0.15989658733734463
-0.31270454101774509
0.81478207824469917
1.1799679430374985
1.4592821396804538
1.3752595106656753
1.0925920619168266
-0.024784250530783238
-0.026131419139397802
-0.87914894181573677
-0.13443902634159971
0.39256181148235197
-1.3912484380074708
-0.40838823823912568
-0.40759894083373666
0.09374954241761646
-0.32693087147690875
-0.32310021114863136
-1.3088114120546519
-1.1587565760857086
-1.2944976364543339
0.3083680864096171
0.4323756118109725
-1.873024877129877
-0.97662012838994439
-0.36557991356390884
0.32845506314084871
0.14859810834248688
0.92154529727264045
-1.3376262734644446
-0.65332236997310766
-1.4186976061678533
0.11575665883431618
-0.53711004384648842
0.62420051262371912
-1.2864109301401143
0.054413670134549674
-1.8285440701230777
-1.0641594039240303
-0.36988581481819288
0.30422599891249685
0.26630939669059489
-1.6269169242304691
0.58630516366847685
0.87319745016105588
-0.81341567371192436
1.1633539798544086
-0.98691170549558738
-0.81952780387083135
-0.16288565195926835
0.8172332223201626
0.76601401479872921
0.39431754321662593
0.66314236601471299
-0.44590162309565223
0.56757729770691634
0.54507461149961223
-1.5442701874537634
-0.81471216041316907
1.2422329328168544
-0.42421331795413697
-0.49672082240228405
-0.16102434211356648
0.94129526624971294
-1.1517979345588922
0.5693197206175904
0.7104108191907077
0.5146854332785854
-0.63123999386555485
-1.1439113529890603
0.79958807351980887
0.62373130479039929
0.096034263706791606
0.3216858706838906
0.38523551792360539
0.27606151787905958
1.1965305957463754
0.58179308890963843
0.10417651368418035
1.0169729826797793
1.9259237376585887
0.24315958517398034
0.85116345347677558
-0.68426382634457761
1.123246131750804
-0.22878050422898391
-0.49646428479196913
0.3868524803750234
-0.50449757216750979
-2.2437066642053218
-1.8503161157282033
-1.2691941522602717
0.62112860626576927
-0.51321306398509303
-0.49962442142900354
-0.93828197949573777
1.8303350211555949
-0.24335097251085686
-0.66944120203625579
0.36536757422947658
-1.4467330326270917
-0.69145210478213281
-0.024582810015605777
2.056848985608648
0.29255934703547409
0.30493355975341263
0.78581972046856996
0.81925460216763024
-0.54316494629452539
0.10908425061356827
-1.5023314255849241
0.75067754331943304
-0.99179360694027829
-0.20931155540559901
0.039147893720073892
-0.94838083897348424
1.2185994956240234
-0.50921541457882147
-0.4791532248268664
0.3022334661377335
1.3508773668840086
-0.11098567971720252
-0.94584376799316972
1.2724815036055057
-0.69790983593848899
-1.9347078641169286
-1.0824930117869447
1.4498829460871041
1.9970928190445563
0.23028402379249707
-0.032251514880289364
-1.415307152541011
-1.8202442995266859
1.052430131645282
-0.39050286087103675
-1.0446305493861576
-0.60764559245348948
-0.53200846996306028
-0.0051109510433073706
-0.98970415368968623
0.27584917355900301
0.26472472351814957
0.8473666047894185
-0.39886019663751127
1.600744675969596
-0.19071322472844546
0.40623757630245783
-0.6306529863906507
1.6081499619107948
-0.42342260890256589
1.042136078579883
-0.29298407022816975
0.97876916376320622
1.0889207102554361
-0.013230086557564635
-0.7596225244911915
-0.53408957708360238
-0.54264519530096533
-0.26995739007908248
-1.5739105306771253
-0.17309591979341449
0.36175947565372646
-0.89008707550206023
-0.76374291653970983
-0.68451125128068568
-0.024053653394440877
