-0.13477
-0.018328
0.46079
1.3623
0.45187
1.6484
-2.0284
-0.44926
0.23599
-0.83517
-1.276
0.61704
0.6127
0.28938
0.39532
-0.87056
-0.49769
-0.10667
-0.68783
0.33188
2.3652
-0.48223
0.64745
-1.0344
1.3396
-0.96914
0.20872
-0.61859
0.51202
0.011354
-0.043989
2.9491
-0.63005
-0.046879
2.683
-1.1467
0.553
-1.0765
1.0306
0.32753
0.65212
-0.27886
0.24519
1.4725
-2.2751
-1.6333
0.41547
-0.65477
-0.29635
-1.4969
-0.90483
-0.40418
-0.7258
-0.86649
-0.42185
-0.94267
1.3419
-0.98843
1.8179
-0.37444
-1.4517
-0.61868
0.9345
1.0559
0.16023
0.2874
0.63291
-1.459
-0.58171
-1.8301
-0.4491
0.94927
0.71744
2.2878
0.16673
-2.1565
1.6894
1.2823
-0.58263
0.22261
0.77945
0.38471
0.69637
-0.11272
-0.038824
0.088089
-0.78966
1.423
0.0063317
0.68648
-0.85493
-1.0752
-0.090967
-0.25277
1.1948
0.60606
0.54051
-1.4449
-0.96769
0.20205
-0.34788
1.2901
1.3412
-0.5808
0.87514
1.3954
0.32099
1.6234
1.0624
0.21411
0.8768
0.19441
-0.41489
0.35846
0.036223
-0.36463
1.771
0.22127
2.7304
-0.29617
0.5643
1.5826
2.7292
0.30356
-0.79026
0.80338
-1.3199
-0.27385
0.27187
1.4896
1.4371
-0.027561
0.92393
-0.32128
0.66112
1.9153
0.15676
-0.30054
-0.50003
0.71647
1.3373
2.1257
0.054046
0.16304
-0.63271
1.612
-0.075449
-0.47324
2.1842
0.80988
0.71634
-1.0056
0.43399
0.52014
-1.0922
-0.22579
-0.40492
0.52786
-1.007
1.089
1.7849
-0.30375
-0.0086966
0.50664
1.2033
0.52202
0.39705
-0.48281
-0.2315
0.61339
1.6829
0.56839
-1.206
0.43306
-0.092121
-0.24405
-0.21919
-0.87977
-0.3208
-0.78442
-0.36496
0.11727
0.17434
-0.21566
-0.15261
0.033688
0.45828
1.2816
0.62009
-0.28667
0.59802
-0.24553
-1.7807
-2.3472
-1.7136
-0.23713
-0.61963
-0.72016
0.040657
-0.65898
-0.63052
0.60963
0.78233
2.4366
0.30241
0.05832
-0.57413
-0.19521
-0.050531
-1.7558
-0.25736
0.74954
-0.57076
0.49423
0.99144
1.0771
0.77684
-2.2598
-0.56438
0.90149
0.39468
0.0048544
0.43692
1.1301
0.15377
-0.75863
-0.18016
-0.20779
0.89675
0.41231
0.54752
0.14784
-0.36227
0.061141
0.21671
-1.3981
0.17887
0.92758
-0.11018
1.5724
0.56049
-0.42034
-0.15395
-0.2752
0.24112
0.75469
-0.29191
0.45845
1.7553
0.93149
0.82526
-0.81481
-0.5342
0.24255
-0.10065
-1.625
-1.5144
1.0262
-0.75813
2.0783
-2.222
0.44876
0.00062612
-0.75624
0.40432
-0.79385
0.85978
0.066869
-1.6394
-2.4247
-0.28383
1.1458
0.18117
0.05425
0.68775
-1.3934
1.4254
-0.89385
0.037765
-0.36357
0.14956
-1.9445
1.5239
0.54581
2.0099
1.4167
0.011481
-0.93905
-1.7389
0.016971
0.21916
1.0458
-0.95098
0.7948
0.07143
-0.77369
0.77416
0.26565
-0.23511
1.8773
0.60924
-0.11027
0.27746
0.087046
0.17359
0.45359
-0.60352
-0.79702
0.36065
1.8851
-0.30682
-1.0127
-0.23855
-0.48401
-0.32734
0.47552
-0.13
-0.59435
-0.44377
-1.3225
-0.85952
-1.413
-0.51599
-1.0851
-0.70716
-0.30165
-1.2004
-0.019362
0.34037
-0.96323
1.1139
-1.5861
-0.39179
-1.4847
-0.34463
-1.3239
-0.57483
-0.74071
-1.185
-2.0649
0.56506
2.0001
2.2233
-0.49218
-0.046003
-0.46575
0.075947
-0.91877
-1.9195
-0.036443
-1.2251
-1.9024
2.3742
-0.23335
0.40388
1.1925
-1.6848
0.41315
0.50175
0.083064
0.1578
-0.52794
0.72306
-0.84994
-0.79638
0.72534
1.6865
-0.38639
-0.50508
0.40807
1.0724
0.96798
0.27015
-0.63441
0.62976
-0.079234
1.3769
-1.4082
0.14123
1.2897
-0.49494
-0.62482
-0.93363
-0.27872
-0.20052
0.13674
-0.88335
0.082538
-0.60387
-0.36873
-0.83817
-0.28248
3.5699
3.4075
1.1469
0.78726
-1.2781
-0.58459
-0.61941
0.5353
0.48299
0.10848
-0.34028
-0.92585
0.0053217
1.1391
0.42736
0.18103
0.65748
0.58425
-1.6165
0.018774
-0.42596
-2.034
-1.3286
-0.31989
0.82543
-0.22929
0.26225
-0.89798
-2.1573
0.093917
-0.95118
1.1726
1.7351
-0.3717
1.1929
0.95365
-1.415
-0.033356
0.26112
0.52299
0.67679
0.6744
0.6784
-0.31258
0.37924
-2.2529
-1.1684
1.202
-0.66074
0.32756
1.5081
-0.88891
-0.95928
-0.49272
0.44106
-0.20476
-0.97781
-1.5729
-0.37026
-0.22115
-0.53521
-0.26197
-1.0954
0.54923
-2.1746
0.14461
0.66903
-0.84883
-0.05709
0.29179
-0.61462
-0.013643
0.41211
-0.93715
0.83516
1.0945
0.32118
0.015113
-1.1645
0.49484
-1.2158
1.5908
0.52648
0.26482
-0.3936
-2.1763
-1.1957
0.36533
2.4124
0.74025
0.30975
-0.54199
0.12228
0.96228
-0.25397
1.8918
-1.2203
-0.37624
0.052429
-1.9539
0.56542
0.077794
0.080701
0.79471
1.0437
0.80218
-0.46882
-0.046592
0.35345
-1.2568
-1.036
-0.42696
0.077669
1.7909
0.79726
-0.4425
-0.62909
1.5338
2.7335
0.16744
-0.47887
-1.4127
0.97499
0.28972
1.1654
-0.90871
0.24058
-0.65405
1.275
-0.55119
-0.087409
-0.34782
0.99396
0.42844
-1.0042
-0.63269
-1.0457
0.50571
0.33195
-1.6354
-1.9068
-0.040399
0.69719
0.1688
-1.5438
-1.5518
0.86708
-0.14537
-0.38624
1.3162
-0.79646
0.13544
0.41781
0.81988
-0.85435
0.35732
2.7485
-1.513
0.43398
-0.22977
-0.82709
-0.83198
0.4979
2.3156
-0.79383
0.54096
-0.55906
1.9766
0.54466
-0.13791
0.61988
-0.0055828
1.1072
-0.18559
-1.1214
0.24645
1.561
-1.1966
-0.24235
1.0048
